<?xml version="1.0"?>
<opencv_storage>
<cascade>
  <stageType>BOOST</stageType>
  <featureType>HAAR</featureType>
  <height>41</height>
  <width>15</width>
  <stageParams>
    <boostType>GAB</boostType>
    <minHitRate>9.9500000476837158e-01</minHitRate>
    <maxFalseAlarm>5.0000000000000000e-01</maxFalseAlarm>
    <weightTrimRate>9.4999999999999996e-01</weightTrimRate>
    <maxDepth>1</maxDepth>
    <maxWeakCount>100</maxWeakCount></stageParams>
  <featureParams>
    <maxCatCount>0</maxCatCount>
    <featSize>1</featSize>
    <mode>BASIC</mode></featureParams>
  <stageNum>10</stageNum>
  <stages>
    <!-- stage 0 -->
    <_>
      <maxWeakCount>5</maxWeakCount>
      <stageThreshold>-4.5820564031600952e-01</stageThreshold>
      <weakClassifiers>
        <_>
          <internalNodes>
            0 -1 71 -1.6601748066022992e-03</internalNodes>
          <leafValues>
            -9.3965518474578857e-01 5.9749555587768555e-01</leafValues></_>
        <_>
          <internalNodes>
            0 -1 48 1.4592087827622890e-02</internalNodes>
          <leafValues>
            2.7851435542106628e-01 -9.5441514253616333e-01</leafValues></_>
        <_>
          <internalNodes>
            0 -1 51 -5.5154985748231411e-03</internalNodes>
          <leafValues>
            5.0151145458221436e-01 -5.1139307022094727e-01</leafValues></_>
        <_>
          <internalNodes>
            0 -1 53 -4.4785863719880581e-03</internalNodes>
          <leafValues>
            -9.8058038949966431e-01 2.4134415388107300e-01</leafValues></_>
        <_>
          <internalNodes>
            0 -1 98 1.2540195602923632e-03</internalNodes>
          <leafValues>
            -5.3992044925689697e-01 4.4815820455551147e-01</leafValues></_></weakClassifiers></_>
    <!-- stage 1 -->
    <_>
      <maxWeakCount>7</maxWeakCount>
      <stageThreshold>-6.1955291032791138e-01</stageThreshold>
      <weakClassifiers>
        <_>
          <internalNodes>
            0 -1 28 9.8646618425846100e-03</internalNodes>
          <leafValues>
            5.0719726085662842e-01 -8.8165682554244995e-01</leafValues></_>
        <_>
          <internalNodes>
            0 -1 78 -1.7102165147662163e-03</internalNodes>
          <leafValues>
            4.4525906443595886e-01 -4.5035842061042786e-01</leafValues></_>
        <_>
          <internalNodes>
            0 -1 49 -5.3191976621747017e-03</internalNodes>
          <leafValues>
            -8.7837719917297363e-01 2.4224816262722015e-01</leafValues></_>
        <_>
          <internalNodes>
            0 -1 15 -9.1183297336101532e-03</internalNodes>
          <leafValues>
            5.9510898590087891e-01 -3.5515734553337097e-01</leafValues></_>
        <_>
          <internalNodes>
            0 -1 80 5.1648374646902084e-03</internalNodes>
          <leafValues>
            2.2055537998676300e-01 -8.4639573097229004e-01</leafValues></_>
        <_>
          <internalNodes>
            0 -1 25 -4.8391362652182579e-03</internalNodes>
          <leafValues>
            5.7268279790878296e-01 -3.0145344138145447e-01</leafValues></_>
        <_>
          <internalNodes>
            0 -1 68 -3.7808199413120747e-03</internalNodes>
          <leafValues>
            5.7358586788177490e-01 -2.8976967930793762e-01</leafValues></_></weakClassifiers></_>
    <!-- stage 2 -->
    <_>
      <maxWeakCount>10</maxWeakCount>
      <stageThreshold>-7.7945762872695923e-01</stageThreshold>
      <weakClassifiers>
        <_>
          <internalNodes>
            0 -1 26 -1.9798450171947479e-02</internalNodes>
          <leafValues>
            -8.2481753826141357e-01 4.6413850784301758e-01</leafValues></_>
        <_>
          <internalNodes>
            0 -1 62 -3.1860135495662689e-03</internalNodes>
          <leafValues>
            -8.4254354238510132e-01 2.5265488028526306e-01</leafValues></_>
        <_>
          <internalNodes>
            0 -1 46 -3.9829351007938385e-03</internalNodes>
          <leafValues>
            3.2585752010345459e-01 -4.9683368206024170e-01</leafValues></_>
        <_>
          <internalNodes>
            0 -1 98 1.6416464932262897e-03</internalNodes>
          <leafValues>
            -4.1841071844100952e-01 3.9753147959709167e-01</leafValues></_>
        <_>
          <internalNodes>
            0 -1 16 2.4721848312765360e-03</internalNodes>
          <leafValues>
            -2.6539924740791321e-01 6.2785977125167847e-01</leafValues></_>
        <_>
          <internalNodes>
            0 -1 1 1.1374318972229958e-02</internalNodes>
          <leafValues>
            -3.2850399613380432e-01 5.1067590713500977e-01</leafValues></_>
        <_>
          <internalNodes>
            0 -1 104 5.5737341754138470e-03</internalNodes>
          <leafValues>
            -2.2324013710021973e-01 6.1457222700119019e-01</leafValues></_>
        <_>
          <internalNodes>
            0 -1 44 1.9512370228767395e-02</internalNodes>
          <leafValues>
            2.2129158675670624e-01 -6.1696904897689819e-01</leafValues></_>
        <_>
          <internalNodes>
            0 -1 84 2.6531764306128025e-03</internalNodes>
          <leafValues>
            -2.5496059656143188e-01 5.3471630811691284e-01</leafValues></_>
        <_>
          <internalNodes>
            0 -1 9 -1.3141057454049587e-02</internalNodes>
          <leafValues>
            6.8782114982604980e-01 -2.5252312421798706e-01</leafValues></_></weakClassifiers></_>
    <!-- stage 3 -->
    <_>
      <maxWeakCount>9</maxWeakCount>
      <stageThreshold>-6.3971060514450073e-01</stageThreshold>
      <weakClassifiers>
        <_>
          <internalNodes>
            0 -1 18 -2.1873699733987451e-04</internalNodes>
          <leafValues>
            4.8601397871971130e-01 -5.1456308364868164e-01</leafValues></_>
        <_>
          <internalNodes>
            0 -1 23 5.1139546558260918e-03</internalNodes>
          <leafValues>
            -3.1347993016242981e-01 4.1339096426963806e-01</leafValues></_>
        <_>
          <internalNodes>
            0 -1 67 -3.1336778774857521e-03</internalNodes>
          <leafValues>
            -8.6989742517471313e-01 1.4748279750347137e-01</leafValues></_>
        <_>
          <internalNodes>
            0 -1 89 -9.5723377307876945e-04</internalNodes>
          <leafValues>
            2.9384234547615051e-01 -4.3465071916580200e-01</leafValues></_>
        <_>
          <internalNodes>
            0 -1 66 -5.5306479334831238e-03</internalNodes>
          <leafValues>
            -8.8294059038162231e-01 1.3299372792243958e-01</leafValues></_>
        <_>
          <internalNodes>
            0 -1 34 -3.3973045647144318e-03</internalNodes>
          <leafValues>
            5.5122864246368408e-01 -2.4008797109127045e-01</leafValues></_>
        <_>
          <internalNodes>
            0 -1 33 -8.1652812659740448e-03</internalNodes>
          <leafValues>
            -9.5203161239624023e-01 1.2541955709457397e-01</leafValues></_>
        <_>
          <internalNodes>
            0 -1 36 -9.0293493121862411e-03</internalNodes>
          <leafValues>
            5.2669191360473633e-01 -2.6998743414878845e-01</leafValues></_>
        <_>
          <internalNodes>
            0 -1 57 -1.1865600245073438e-03</internalNodes>
          <leafValues>
            6.6818612813949585e-01 -2.7341464161872864e-01</leafValues></_></weakClassifiers></_>
    <!-- stage 4 -->
    <_>
      <maxWeakCount>9</maxWeakCount>
      <stageThreshold>-9.7888398170471191e-01</stageThreshold>
      <weakClassifiers>
        <_>
          <internalNodes>
            0 -1 74 -5.7743513025343418e-04</internalNodes>
          <leafValues>
            5.7264959812164307e-01 -2.0772947371006012e-01</leafValues></_>
        <_>
          <internalNodes>
            0 -1 105 -1.0711060836911201e-02</internalNodes>
          <leafValues>
            5.8540934324264526e-01 -2.0517398416996002e-01</leafValues></_>
        <_>
          <internalNodes>
            0 -1 41 2.8575304895639420e-03</internalNodes>
          <leafValues>
            -2.3740607500076294e-01 5.1854109764099121e-01</leafValues></_>
        <_>
          <internalNodes>
            0 -1 60 -4.2460924014449120e-03</internalNodes>
          <leafValues>
            6.2290102243423462e-01 -2.9366627335548401e-01</leafValues></_>
        <_>
          <internalNodes>
            0 -1 59 -3.2633379101753235e-02</internalNodes>
          <leafValues>
            -9.1178959608078003e-01 1.8298090994358063e-01</leafValues></_>
        <_>
          <internalNodes>
            0 -1 19 -9.9952323362231255e-03</internalNodes>
          <leafValues>
            7.3134452104568481e-01 -2.2757512331008911e-01</leafValues></_>
        <_>
          <internalNodes>
            0 -1 4 4.6050604432821274e-03</internalNodes>
          <leafValues>
            -2.4176445603370667e-01 5.4761809110641479e-01</leafValues></_>
        <_>
          <internalNodes>
            0 -1 69 -5.0731138326227665e-03</internalNodes>
          <leafValues>
            5.2505433559417725e-01 -2.6758456230163574e-01</leafValues></_>
        <_>
          <internalNodes>
            0 -1 79 -1.2063909089192748e-03</internalNodes>
          <leafValues>
            3.9388036727905273e-01 -3.9753228425979614e-01</leafValues></_></weakClassifiers></_>
    <!-- stage 5 -->
    <_>
      <maxWeakCount>13</maxWeakCount>
      <stageThreshold>-8.4060233831405640e-01</stageThreshold>
      <weakClassifiers>
        <_>
          <internalNodes>
            0 -1 50 3.9882697165012360e-03</internalNodes>
          <leafValues>
            4.5169281959533691e-01 -6.9784170389175415e-01</leafValues></_>
        <_>
          <internalNodes>
            0 -1 50 -4.4908616691827774e-03</internalNodes>
          <leafValues>
            -8.7347912788391113e-01 2.0685049891471863e-01</leafValues></_>
        <_>
          <internalNodes>
            0 -1 89 -3.0385782010853291e-03</internalNodes>
          <leafValues>
            2.9148301482200623e-01 -3.8634806871414185e-01</leafValues></_>
        <_>
          <internalNodes>
            0 -1 3 1.1863083578646183e-02</internalNodes>
          <leafValues>
            -2.4700100719928741e-01 4.4298374652862549e-01</leafValues></_>
        <_>
          <internalNodes>
            0 -1 43 -1.0260283946990967e-02</internalNodes>
          <leafValues>
            -8.6945205926895142e-01 1.2971186637878418e-01</leafValues></_>
        <_>
          <internalNodes>
            0 -1 42 3.5470260772854090e-03</internalNodes>
          <leafValues>
            1.5588667988777161e-01 -7.1587622165679932e-01</leafValues></_>
        <_>
          <internalNodes>
            0 -1 10 -8.8454119395464659e-04</internalNodes>
          <leafValues>
            3.3453211188316345e-01 -3.5808506608009338e-01</leafValues></_>
        <_>
          <internalNodes>
            0 -1 65 -1.1353890877217054e-03</internalNodes>
          <leafValues>
            4.0385308861732483e-01 -3.3083122968673706e-01</leafValues></_>
        <_>
          <internalNodes>
            0 -1 70 -2.7141268365085125e-03</internalNodes>
          <leafValues>
            4.7023013234138489e-01 -2.7659133076667786e-01</leafValues></_>
        <_>
          <internalNodes>
            0 -1 22 -1.0855278000235558e-02</internalNodes>
          <leafValues>
            6.6235631704330444e-01 -1.5888544917106628e-01</leafValues></_>
        <_>
          <internalNodes>
            0 -1 106 -9.2668872093781829e-04</internalNodes>
          <leafValues>
            5.0984150171279907e-01 -2.2424304485321045e-01</leafValues></_>
        <_>
          <internalNodes>
            0 -1 97 1.7534440848976374e-03</internalNodes>
          <leafValues>
            -4.0863576531410217e-01 3.1219562888145447e-01</leafValues></_>
        <_>
          <internalNodes>
            0 -1 31 -3.5377368330955505e-03</internalNodes>
          <leafValues>
            -9.0683686733245850e-01 1.3028030097484589e-01</leafValues></_></weakClassifiers></_>
    <!-- stage 6 -->
    <_>
      <maxWeakCount>14</maxWeakCount>
      <stageThreshold>-9.0673756599426270e-01</stageThreshold>
      <weakClassifiers>
        <_>
          <internalNodes>
            0 -1 37 -4.9663409590721130e-02</internalNodes>
          <leafValues>
            -7.2222220897674561e-01 4.2512077093124390e-01</leafValues></_>
        <_>
          <internalNodes>
            0 -1 35 4.4842727482318878e-02</internalNodes>
          <leafValues>
            -1.5774939954280853e-01 6.4843291044235229e-01</leafValues></_>
        <_>
          <internalNodes>
            0 -1 81 1.5882505977060646e-04</internalNodes>
          <leafValues>
            -3.9142292737960815e-01 2.6864710450172424e-01</leafValues></_>
        <_>
          <internalNodes>
            0 -1 17 1.8686922267079353e-03</internalNodes>
          <leafValues>
            1.2620204687118530e-01 -8.6578834056854248e-01</leafValues></_>
        <_>
          <internalNodes>
            0 -1 56 -4.9711018800735474e-03</internalNodes>
          <leafValues>
            8.2208859920501709e-01 -1.5842211246490479e-01</leafValues></_>
        <_>
          <internalNodes>
            0 -1 0 -1.8859358504414558e-02</internalNodes>
          <leafValues>
            6.1132532358169556e-01 -1.6945666074752808e-01</leafValues></_>
        <_>
          <internalNodes>
            0 -1 55 7.6957265846431255e-03</internalNodes>
          <leafValues>
            1.8149252235889435e-01 -6.6609621047973633e-01</leafValues></_>
        <_>
          <internalNodes>
            0 -1 45 -1.7463827971369028e-03</internalNodes>
          <leafValues>
            3.3639159798622131e-01 -3.3280745148658752e-01</leafValues></_>
        <_>
          <internalNodes>
            0 -1 14 -1.8790515605360270e-03</internalNodes>
          <leafValues>
            3.8023826479911804e-01 -2.8636884689331055e-01</leafValues></_>
        <_>
          <internalNodes>
            0 -1 63 1.7813315935200080e-05</internalNodes>
          <leafValues>
            -6.0593080520629883e-01 2.0186848938465118e-01</leafValues></_>
        <_>
          <internalNodes>
            0 -1 12 1.8064548494294286e-03</internalNodes>
          <leafValues>
            -2.2435714304447174e-01 5.3033232688903809e-01</leafValues></_>
        <_>
          <internalNodes>
            0 -1 11 -2.7253088774159551e-04</internalNodes>
          <leafValues>
            3.6236518621444702e-01 -4.0703538060188293e-01</leafValues></_>
        <_>
          <internalNodes>
            0 -1 88 -2.0940238609910011e-03</internalNodes>
          <leafValues>
            5.6408220529556274e-01 -1.8526294827461243e-01</leafValues></_>
        <_>
          <internalNodes>
            0 -1 87 -6.0114241205155849e-03</internalNodes>
          <leafValues>
            5.1326453685760498e-01 -1.9514568150043488e-01</leafValues></_></weakClassifiers></_>
    <!-- stage 7 -->
    <_>
      <maxWeakCount>14</maxWeakCount>
      <stageThreshold>-7.2093158960342407e-01</stageThreshold>
      <weakClassifiers>
        <_>
          <internalNodes>
            0 -1 52 -4.7269966453313828e-03</internalNodes>
          <leafValues>
            -7.2413790225982666e-01 4.3273904919624329e-01</leafValues></_>
        <_>
          <internalNodes>
            0 -1 72 -1.9147948478348553e-04</internalNodes>
          <leafValues>
            5.0146275758743286e-01 -2.4956543743610382e-01</leafValues></_>
        <_>
          <internalNodes>
            0 -1 85 1.0836262255907059e-02</internalNodes>
          <leafValues>
            -2.0382426679134369e-01 5.7553118467330933e-01</leafValues></_>
        <_>
          <internalNodes>
            0 -1 99 1.2326126452535391e-03</internalNodes>
          <leafValues>
            -4.4505485892295837e-01 2.3355345427989960e-01</leafValues></_>
        <_>
          <internalNodes>
            0 -1 27 -3.9930991828441620e-02</internalNodes>
          <leafValues>
            -7.3184001445770264e-01 1.3564027845859528e-01</leafValues></_>
        <_>
          <internalNodes>
            0 -1 77 1.4496336225420237e-03</internalNodes>
          <leafValues>
            -4.8744237422943115e-01 1.9562247395515442e-01</leafValues></_>
        <_>
          <internalNodes>
            0 -1 30 -5.5904826149344444e-03</internalNodes>
          <leafValues>
            3.6478024721145630e-01 -3.4948635101318359e-01</leafValues></_>
        <_>
          <internalNodes>
            0 -1 2 4.0126899257302284e-03</internalNodes>
          <leafValues>
            -2.1968328952789307e-01 5.1166427135467529e-01</leafValues></_>
        <_>
          <internalNodes>
            0 -1 8 3.7407547235488892e-02</internalNodes>
          <leafValues>
            -1.9324518740177155e-01 5.4156553745269775e-01</leafValues></_>
        <_>
          <internalNodes>
            0 -1 73 6.8604195257648826e-04</internalNodes>
          <leafValues>
            2.2496868669986725e-01 -5.1190888881683350e-01</leafValues></_>
        <_>
          <internalNodes>
            0 -1 40 -5.2357376553118229e-03</internalNodes>
          <leafValues>
            5.8053362369537354e-01 -2.1163852512836456e-01</leafValues></_>
        <_>
          <internalNodes>
            0 -1 38 -4.0880674496293068e-03</internalNodes>
          <leafValues>
            4.0562349557876587e-01 -2.7851867675781250e-01</leafValues></_>
        <_>
          <internalNodes>
            0 -1 39 -2.7586352080106735e-03</internalNodes>
          <leafValues>
            5.1175892353057861e-01 -2.2178991138935089e-01</leafValues></_>
        <_>
          <internalNodes>
            0 -1 32 -3.5395000595599413e-03</internalNodes>
          <leafValues>
            -8.5601490736007690e-01 1.3750979304313660e-01</leafValues></_></weakClassifiers></_>
    <!-- stage 8 -->
    <_>
      <maxWeakCount>15</maxWeakCount>
      <stageThreshold>-8.3606499433517456e-01</stageThreshold>
      <weakClassifiers>
        <_>
          <internalNodes>
            0 -1 29 1.4200231526046991e-03</internalNodes>
          <leafValues>
            4.5408162474632263e-01 -4.8275861144065857e-01</leafValues></_>
        <_>
          <internalNodes>
            0 -1 64 1.8530113622546196e-02</internalNodes>
          <leafValues>
            1.9836944341659546e-01 -5.3079938888549805e-01</leafValues></_>
        <_>
          <internalNodes>
            0 -1 21 4.9756665248423815e-04</internalNodes>
          <leafValues>
            1.3573476672172546e-01 -7.0549100637435913e-01</leafValues></_>
        <_>
          <internalNodes>
            0 -1 95 -1.8781707622110844e-03</internalNodes>
          <leafValues>
            3.9387074112892151e-01 -2.5514090061187744e-01</leafValues></_>
        <_>
          <internalNodes>
            0 -1 54 8.8261906057596207e-05</internalNodes>
          <leafValues>
            -5.0705558061599731e-01 1.8359836935997009e-01</leafValues></_>
        <_>
          <internalNodes>
            0 -1 92 -6.8195979110896587e-04</internalNodes>
          <leafValues>
            3.2581174373626709e-01 -3.9530247449874878e-01</leafValues></_>
        <_>
          <internalNodes>
            0 -1 91 4.8999907448887825e-03</internalNodes>
          <leafValues>
            -3.5252866148948669e-01 2.6014336943626404e-01</leafValues></_>
        <_>
          <internalNodes>
            0 -1 96 -2.3637188598513603e-02</internalNodes>
          <leafValues>
            4.5810073614120483e-01 -1.9883887469768524e-01</leafValues></_>
        <_>
          <internalNodes>
            0 -1 90 -4.5792562887072563e-03</internalNodes>
          <leafValues>
            -8.9249098300933838e-01 1.0313162952661514e-01</leafValues></_>
        <_>
          <internalNodes>
            0 -1 20 -1.0543739423155785e-02</internalNodes>
          <leafValues>
            3.9894512295722961e-01 -2.4786241352558136e-01</leafValues></_>
        <_>
          <internalNodes>
            0 -1 76 -8.1896567717194557e-03</internalNodes>
          <leafValues>
            3.6625602841377258e-01 -2.7159029245376587e-01</leafValues></_>
        <_>
          <internalNodes>
            0 -1 102 3.4409848740324378e-04</internalNodes>
          <leafValues>
            -3.2907763123512268e-01 2.7460220456123352e-01</leafValues></_>
        <_>
          <internalNodes>
            0 -1 7 2.6033893227577209e-03</internalNodes>
          <leafValues>
            -1.8032515048980713e-01 5.6221252679824829e-01</leafValues></_>
        <_>
          <internalNodes>
            0 -1 75 2.8092009015381336e-03</internalNodes>
          <leafValues>
            1.3342511653900146e-01 -7.7005511522293091e-01</leafValues></_>
        <_>
          <internalNodes>
            0 -1 13 -1.6983691602945328e-03</internalNodes>
          <leafValues>
            3.5905560851097107e-01 -2.6833307743072510e-01</leafValues></_></weakClassifiers></_>
    <!-- stage 9 -->
    <_>
      <maxWeakCount>15</maxWeakCount>
      <stageThreshold>-6.8243068456649780e-01</stageThreshold>
      <weakClassifiers>
        <_>
          <internalNodes>
            0 -1 82 8.8211447000503540e-03</internalNodes>
          <leafValues>
            4.0298506617546082e-01 -8.1818181276321411e-01</leafValues></_>
        <_>
          <internalNodes>
            0 -1 86 4.6631100121885538e-04</internalNodes>
          <leafValues>
            -2.1080376207828522e-01 4.8293671011924744e-01</leafValues></_>
        <_>
          <internalNodes>
            0 -1 93 2.3890308511909097e-04</internalNodes>
          <leafValues>
            -4.1949912905693054e-01 2.5575238466262817e-01</leafValues></_>
        <_>
          <internalNodes>
            0 -1 94 -7.4682389385998249e-03</internalNodes>
          <leafValues>
            7.9464626312255859e-01 -1.3429234921932220e-01</leafValues></_>
        <_>
          <internalNodes>
            0 -1 83 -4.8603587783873081e-03</internalNodes>
          <leafValues>
            3.9888560771942139e-01 -2.7082198858261108e-01</leafValues></_>
        <_>
          <internalNodes>
            0 -1 103 1.4120750711299479e-04</internalNodes>
          <leafValues>
            -3.2529050111770630e-01 2.9039528965950012e-01</leafValues></_>
        <_>
          <internalNodes>
            0 -1 5 5.0707504153251648e-02</internalNodes>
          <leafValues>
            -2.3355330526828766e-01 4.3706780672073364e-01</leafValues></_>
        <_>
          <internalNodes>
            0 -1 47 -3.4177261404693127e-03</internalNodes>
          <leafValues>
            -7.7152055501937866e-01 1.1196900904178619e-01</leafValues></_>
        <_>
          <internalNodes>
            0 -1 42 3.9013777859508991e-03</internalNodes>
          <leafValues>
            1.0968008637428284e-01 -6.7164510488510132e-01</leafValues></_>
        <_>
          <internalNodes>
            0 -1 24 -7.8464960679411888e-03</internalNodes>
          <leafValues>
            3.8770446181297302e-01 -2.1623560786247253e-01</leafValues></_>
        <_>
          <internalNodes>
            0 -1 58 -4.1315276175737381e-03</internalNodes>
          <leafValues>
            4.5690211653709412e-01 -2.2871370613574982e-01</leafValues></_>
        <_>
          <internalNodes>
            0 -1 6 -1.3238106854259968e-02</internalNodes>
          <leafValues>
            4.8884066939353943e-01 -1.8509899079799652e-01</leafValues></_>
        <_>
          <internalNodes>
            0 -1 101 2.4416495580226183e-03</internalNodes>
          <leafValues>
            -1.3348527252674103e-01 6.1424511671066284e-01</leafValues></_>
        <_>
          <internalNodes>
            0 -1 61 -3.8584270514547825e-03</internalNodes>
          <leafValues>
            -8.5882127285003662e-01 1.3205623626708984e-01</leafValues></_>
        <_>
          <internalNodes>
            0 -1 100 6.9755828008055687e-04</internalNodes>
          <leafValues>
            -4.2719912528991699e-01 2.5573912262916565e-01</leafValues></_></weakClassifiers></_></stages>
  <features>
    <_>
      <rects>
        <_>
          0 5 13 6 -1.</_>
        <_>
          0 7 13 2 3.</_></rects>
      <tilted>0</tilted></_>
    <_>
      <rects>
        <_>
          0 7 2 25 -1.</_>
        <_>
          1 7 1 25 2.</_></rects>
      <tilted>0</tilted></_>
    <_>
      <rects>
        <_>
          0 12 2 4 -1.</_>
        <_>
          1 12 1 4 2.</_></rects>
      <tilted>0</tilted></_>
    <_>
      <rects>
        <_>
          0 19 4 6 -1.</_>
        <_>
          2 19 2 6 2.</_></rects>
      <tilted>0</tilted></_>
    <_>
      <rects>
        <_>
          0 28 3 4 -1.</_>
        <_>
          1 28 1 4 3.</_></rects>
      <tilted>0</tilted></_>
    <_>
      <rects>
        <_>
          1 0 13 14 -1.</_>
        <_>
          1 7 13 7 2.</_></rects>
      <tilted>0</tilted></_>
    <_>
      <rects>
        <_>
          1 6 13 6 -1.</_>
        <_>
          1 8 13 2 3.</_></rects>
      <tilted>0</tilted></_>
    <_>
      <rects>
        <_>
          1 17 2 2 -1.</_>
        <_>
          2 17 1 2 2.</_></rects>
      <tilted>0</tilted></_>
    <_>
      <rects>
        <_>
          2 1 10 10 -1.</_>
        <_>
          2 6 10 5 2.</_></rects>
      <tilted>0</tilted></_>
    <_>
      <rects>
        <_>
          2 11 10 6 -1.</_>
        <_>
          2 13 10 2 3.</_></rects>
      <tilted>0</tilted></_>
    <_>
      <rects>
        <_>
          2 13 3 6 -1.</_>
        <_>
          3 13 1 6 3.</_></rects>
      <tilted>0</tilted></_>
    <_>
      <rects>
        <_>
          2 17 2 1 -1.</_>
        <_>
          3 17 1 1 2.</_></rects>
      <tilted>0</tilted></_>
    <_>
      <rects>
        <_>
          2 19 2 2 -1.</_>
        <_>
          3 19 1 2 2.</_></rects>
      <tilted>0</tilted></_>
    <_>
      <rects>
        <_>
          2 23 2 3 -1.</_>
        <_>
          3 23 1 3 2.</_></rects>
      <tilted>0</tilted></_>
    <_>
      <rects>
        <_>
          2 24 2 5 -1.</_>
        <_>
          3 24 1 5 2.</_></rects>
      <tilted>0</tilted></_>
    <_>
      <rects>
        <_>
          3 10 9 6 -1.</_>
        <_>
          3 12 9 2 3.</_></rects>
      <tilted>0</tilted></_>
    <_>
      <rects>
        <_>
          3 16 2 4 -1.</_>
        <_>
          3 18 2 2 2.</_></rects>
      <tilted>0</tilted></_>
    <_>
      <rects>
        <_>
          3 18 9 3 -1.</_>
        <_>
          6 18 3 3 3.</_></rects>
      <tilted>0</tilted></_>
    <_>
      <rects>
        <_>
          3 19 9 4 -1.</_>
        <_>
          6 19 3 4 3.</_></rects>
      <tilted>0</tilted></_>
    <_>
      <rects>
        <_>
          3 20 2 8 -1.</_>
        <_>
          3 24 2 4 2.</_></rects>
      <tilted>0</tilted></_>
    <_>
      <rects>
        <_>
          3 20 2 12 -1.</_>
        <_>
          3 26 2 6 2.</_></rects>
      <tilted>0</tilted></_>
    <_>
      <rects>
        <_>
          3 21 9 2 -1.</_>
        <_>
          6 21 3 2 3.</_></rects>
      <tilted>0</tilted></_>
    <_>
      <rects>
        <_>
          3 22 8 6 -1.</_>
        <_>
          3 24 8 2 3.</_></rects>
      <tilted>0</tilted></_>
    <_>
      <rects>
        <_>
          4 0 5 39 -1.</_>
        <_>
          4 13 5 13 3.</_></rects>
      <tilted>0</tilted></_>
    <_>
      <rects>
        <_>
          4 12 9 6 -1.</_>
        <_>
          4 14 9 2 3.</_></rects>
      <tilted>0</tilted></_>
    <_>
      <rects>
        <_>
          4 13 4 6 -1.</_>
        <_>
          4 15 4 2 3.</_></rects>
      <tilted>0</tilted></_>
    <_>
      <rects>
        <_>
          4 15 6 8 -1.</_>
        <_>
          6 15 2 8 3.</_></rects>
      <tilted>0</tilted></_>
    <_>
      <rects>
        <_>
          4 15 9 10 -1.</_>
        <_>
          7 15 3 10 3.</_></rects>
      <tilted>0</tilted></_>
    <_>
      <rects>
        <_>
          4 16 6 7 -1.</_>
        <_>
          7 16 3 7 2.</_></rects>
      <tilted>0</tilted></_>
    <_>
      <rects>
        <_>
          4 17 6 4 -1.</_>
        <_>
          6 17 2 4 3.</_></rects>
      <tilted>0</tilted></_>
    <_>
      <rects>
        <_>
          4 17 7 6 -1.</_>
        <_>
          4 19 7 2 3.</_></rects>
      <tilted>0</tilted></_>
    <_>
      <rects>
        <_>
          4 19 6 1 -1.</_>
        <_>
          6 19 2 1 3.</_></rects>
      <tilted>0</tilted></_>
    <_>
      <rects>
        <_>
          4 20 6 1 -1.</_>
        <_>
          6 20 2 1 3.</_></rects>
      <tilted>0</tilted></_>
    <_>
      <rects>
        <_>
          4 21 6 2 -1.</_>
        <_>
          6 21 2 2 3.</_></rects>
      <tilted>0</tilted></_>
    <_>
      <rects>
        <_>
          4 28 9 3 -1.</_>
        <_>
          4 29 9 1 3.</_></rects>
      <tilted>0</tilted></_>
    <_>
      <rects>
        <_>
          5 1 9 12 -1.</_>
        <_>
          5 7 9 6 2.</_></rects>
      <tilted>0</tilted></_>
    <_>
      <rects>
        <_>
          5 5 5 6 -1.</_>
        <_>
          5 7 5 2 3.</_></rects>
      <tilted>0</tilted></_>
    <_>
      <rects>
        <_>
          5 10 5 14 -1.</_>
        <_>
          5 17 5 7 2.</_></rects>
      <tilted>0</tilted></_>
    <_>
      <rects>
        <_>
          5 11 5 6 -1.</_>
        <_>
          5 13 5 2 3.</_></rects>
      <tilted>0</tilted></_>
    <_>
      <rects>
        <_>
          5 13 2 6 -1.</_>
        <_>
          5 15 2 2 3.</_></rects>
      <tilted>0</tilted></_>
    <_>
      <rects>
        <_>
          5 14 3 6 -1.</_>
        <_>
          5 16 3 2 3.</_></rects>
      <tilted>0</tilted></_>
    <_>
      <rects>
        <_>
          5 14 5 4 -1.</_>
        <_>
          5 16 5 2 2.</_></rects>
      <tilted>0</tilted></_>
    <_>
      <rects>
        <_>
          5 15 4 5 -1.</_>
        <_>
          7 15 2 5 2.</_></rects>
      <tilted>0</tilted></_>
    <_>
      <rects>
        <_>
          5 15 6 5 -1.</_>
        <_>
          7 15 2 5 3.</_></rects>
      <tilted>0</tilted></_>
    <_>
      <rects>
        <_>
          5 15 8 6 -1.</_>
        <_>
          9 15 4 6 2.</_></rects>
      <tilted>0</tilted></_>
    <_>
      <rects>
        <_>
          5 16 1 6 -1.</_>
        <_>
          5 19 1 3 2.</_></rects>
      <tilted>0</tilted></_>
    <_>
      <rects>
        <_>
          5 16 2 9 -1.</_>
        <_>
          5 19 2 3 3.</_></rects>
      <tilted>0</tilted></_>
    <_>
      <rects>
        <_>
          5 16 4 4 -1.</_>
        <_>
          7 16 2 4 2.</_></rects>
      <tilted>0</tilted></_>
    <_>
      <rects>
        <_>
          5 16 6 7 -1.</_>
        <_>
          8 16 3 7 2.</_></rects>
      <tilted>0</tilted></_>
    <_>
      <rects>
        <_>
          5 16 6 8 -1.</_>
        <_>
          8 16 3 8 2.</_></rects>
      <tilted>0</tilted></_>
    <_>
      <rects>
        <_>
          5 18 4 6 -1.</_>
        <_>
          5 18 2 3 2.</_>
        <_>
          7 21 2 3 2.</_></rects>
      <tilted>0</tilted></_>
    <_>
      <rects>
        <_>
          5 18 6 6 -1.</_>
        <_>
          5 20 6 2 3.</_></rects>
      <tilted>0</tilted></_>
    <_>
      <rects>
        <_>
          5 19 6 2 -1.</_>
        <_>
          7 19 2 2 3.</_></rects>
      <tilted>0</tilted></_>
    <_>
      <rects>
        <_>
          5 19 4 3 -1.</_>
        <_>
          7 19 2 3 2.</_></rects>
      <tilted>0</tilted></_>
    <_>
      <rects>
        <_>
          5 20 6 1 -1.</_>
        <_>
          8 20 3 1 2.</_></rects>
      <tilted>0</tilted></_>
    <_>
      <rects>
        <_>
          5 20 6 4 -1.</_>
        <_>
          8 20 3 4 2.</_></rects>
      <tilted>0</tilted></_>
    <_>
      <rects>
        <_>
          5 34 5 3 -1.</_>
        <_>
          5 35 5 1 3.</_></rects>
      <tilted>0</tilted></_>
    <_>
      <rects>
        <_>
          6 8 3 2 -1.</_>
        <_>
          6 9 3 1 2.</_></rects>
      <tilted>0</tilted></_>
    <_>
      <rects>
        <_>
          6 9 3 6 -1.</_>
        <_>
          6 11 3 2 3.</_></rects>
      <tilted>0</tilted></_>
    <_>
      <rects>
        <_>
          6 12 3 14 -1.</_>
        <_>
          6 19 3 7 2.</_></rects>
      <tilted>0</tilted></_>
    <_>
      <rects>
        <_>
          6 14 3 6 -1.</_>
        <_>
          6 16 3 2 3.</_></rects>
      <tilted>0</tilted></_>
    <_>
      <rects>
        <_>
          6 15 4 4 -1.</_>
        <_>
          8 15 2 4 2.</_></rects>
      <tilted>0</tilted></_>
    <_>
      <rects>
        <_>
          6 15 4 5 -1.</_>
        <_>
          8 15 2 5 2.</_></rects>
      <tilted>0</tilted></_>
    <_>
      <rects>
        <_>
          6 15 6 8 -1.</_>
        <_>
          9 15 3 8 2.</_></rects>
      <tilted>0</tilted></_>
    <_>
      <rects>
        <_>
          6 15 8 5 -1.</_>
        <_>
          10 15 4 5 2.</_></rects>
      <tilted>0</tilted></_>
    <_>
      <rects>
        <_>
          6 16 1 6 -1.</_>
        <_>
          6 18 1 2 3.</_></rects>
      <tilted>0</tilted></_>
    <_>
      <rects>
        <_>
          6 16 4 8 -1.</_>
        <_>
          6 16 2 4 2.</_>
        <_>
          8 20 2 4 2.</_></rects>
      <tilted>0</tilted></_>
    <_>
      <rects>
        <_>
          6 16 4 6 -1.</_>
        <_>
          8 16 2 6 2.</_></rects>
      <tilted>0</tilted></_>
    <_>
      <rects>
        <_>
          6 16 3 6 -1.</_>
        <_>
          6 18 3 2 3.</_></rects>
      <tilted>0</tilted></_>
    <_>
      <rects>
        <_>
          6 16 4 6 -1.</_>
        <_>
          6 18 4 2 3.</_></rects>
      <tilted>0</tilted></_>
    <_>
      <rects>
        <_>
          6 18 1 9 -1.</_>
        <_>
          6 21 1 3 3.</_></rects>
      <tilted>0</tilted></_>
    <_>
      <rects>
        <_>
          6 18 6 5 -1.</_>
        <_>
          9 18 3 5 2.</_></rects>
      <tilted>0</tilted></_>
    <_>
      <rects>
        <_>
          6 20 2 1 -1.</_>
        <_>
          7 20 1 1 2.</_></rects>
      <tilted>0</tilted></_>
    <_>
      <rects>
        <_>
          7 13 2 12 -1.</_>
        <_>
          7 19 2 6 2.</_></rects>
      <tilted>0</tilted></_>
    <_>
      <rects>
        <_>
          7 14 1 10 -1.</_>
        <_>
          7 19 1 5 2.</_></rects>
      <tilted>0</tilted></_>
    <_>
      <rects>
        <_>
          7 15 2 4 -1.</_>
        <_>
          8 15 1 4 2.</_></rects>
      <tilted>0</tilted></_>
    <_>
      <rects>
        <_>
          7 15 3 9 -1.</_>
        <_>
          7 18 3 3 3.</_></rects>
      <tilted>0</tilted></_>
    <_>
      <rects>
        <_>
          7 15 6 5 -1.</_>
        <_>
          10 15 3 5 2.</_></rects>
      <tilted>0</tilted></_>
    <_>
      <rects>
        <_>
          7 16 1 9 -1.</_>
        <_>
          7 19 1 3 3.</_></rects>
      <tilted>0</tilted></_>
    <_>
      <rects>
        <_>
          7 18 1 6 -1.</_>
        <_>
          7 20 1 2 3.</_></rects>
      <tilted>0</tilted></_>
    <_>
      <rects>
        <_>
          7 19 4 3 -1.</_>
        <_>
          9 19 2 3 2.</_></rects>
      <tilted>0</tilted></_>
    <_>
      <rects>
        <_>
          7 20 2 1 -1.</_>
        <_>
          8 20 1 1 2.</_></rects>
      <tilted>0</tilted></_>
    <_>
      <rects>
        <_>
          7 20 4 4 -1.</_>
        <_>
          9 20 2 4 2.</_></rects>
      <tilted>0</tilted></_>
    <_>
      <rects>
        <_>
          8 7 3 9 -1.</_>
        <_>
          8 10 3 3 3.</_></rects>
      <tilted>0</tilted></_>
    <_>
      <rects>
        <_>
          8 10 1 9 -1.</_>
        <_>
          8 13 1 3 3.</_></rects>
      <tilted>0</tilted></_>
    <_>
      <rects>
        <_>
          8 19 6 3 -1.</_>
        <_>
          10 19 2 3 3.</_></rects>
      <tilted>0</tilted></_>
    <_>
      <rects>
        <_>
          8 22 2 1 -1.</_>
        <_>
          9 22 1 1 2.</_></rects>
      <tilted>0</tilted></_>
    <_>
      <rects>
        <_>
          8 25 2 9 -1.</_>
        <_>
          8 28 2 3 3.</_></rects>
      <tilted>0</tilted></_>
    <_>
      <rects>
        <_>
          8 30 1 6 -1.</_>
        <_>
          8 32 1 2 3.</_></rects>
      <tilted>0</tilted></_>
    <_>
      <rects>
        <_>
          9 18 2 6 -1.</_>
        <_>
          9 20 2 2 3.</_></rects>
      <tilted>0</tilted></_>
    <_>
      <rects>
        <_>
          9 21 3 2 -1.</_>
        <_>
          10 21 1 2 3.</_></rects>
      <tilted>0</tilted></_>
    <_>
      <rects>
        <_>
          10 11 4 5 -1.</_>
        <_>
          12 11 2 5 2.</_></rects>
      <tilted>0</tilted></_>
    <_>
      <rects>
        <_>
          10 18 1 6 -1.</_>
        <_>
          10 20 1 2 3.</_></rects>
      <tilted>0</tilted></_>
    <_>
      <rects>
        <_>
          10 20 2 1 -1.</_>
        <_>
          11 20 1 1 2.</_></rects>
      <tilted>0</tilted></_>
    <_>
      <rects>
        <_>
          10 20 1 8 -1.</_>
        <_>
          10 24 1 4 2.</_></rects>
      <tilted>0</tilted></_>
    <_>
      <rects>
        <_>
          10 22 3 4 -1.</_>
        <_>
          11 22 1 4 3.</_></rects>
      <tilted>0</tilted></_>
    <_>
      <rects>
        <_>
          11 7 4 18 -1.</_>
        <_>
          13 7 2 18 2.</_></rects>
      <tilted>0</tilted></_>
    <_>
      <rects>
        <_>
          11 12 2 6 -1.</_>
        <_>
          12 12 1 6 2.</_></rects>
      <tilted>0</tilted></_>
    <_>
      <rects>
        <_>
          11 13 2 5 -1.</_>
        <_>
          12 13 1 5 2.</_></rects>
      <tilted>0</tilted></_>
    <_>
      <rects>
        <_>
          11 14 2 4 -1.</_>
        <_>
          12 14 1 4 2.</_></rects>
      <tilted>0</tilted></_>
    <_>
      <rects>
        <_>
          11 16 2 3 -1.</_>
        <_>
          12 16 1 3 2.</_></rects>
      <tilted>0</tilted></_>
    <_>
      <rects>
        <_>
          11 20 2 4 -1.</_>
        <_>
          11 20 1 2 2.</_>
        <_>
          12 22 1 2 2.</_></rects>
      <tilted>0</tilted></_>
    <_>
      <rects>
        <_>
          12 12 2 2 -1.</_>
        <_>
          13 12 1 2 2.</_></rects>
      <tilted>0</tilted></_>
    <_>
      <rects>
        <_>
          12 13 2 1 -1.</_>
        <_>
          13 13 1 1 2.</_></rects>
      <tilted>0</tilted></_>
    <_>
      <rects>
        <_>
          12 21 2 10 -1.</_>
        <_>
          12 21 1 5 2.</_>
        <_>
          13 26 1 5 2.</_></rects>
      <tilted>0</tilted></_>
    <_>
      <rects>
        <_>
          13 13 2 17 -1.</_>
        <_>
          14 13 1 17 2.</_></rects>
      <tilted>0</tilted></_>
    <_>
      <rects>
        <_>
          13 25 2 1 -1.</_>
        <_>
          14 25 1 1 2.</_></rects>
      <tilted>0</tilted></_></features></cascade>
</opencv_storage>
