<?xml version="1.0"?>
<opencv_storage>
<stage6>
  <maxWeakCount>14</maxWeakCount>
  <stageThreshold>-9.0673756599426270e-01</stageThreshold>
  <weakClassifiers>
    <_>
      <internalNodes>
        0 -1 109178 -4.9663409590721130e-02</internalNodes>
      <leafValues>
        -7.2222220897674561e-01 4.2512077093124390e-01</leafValues></_>
    <_>
      <internalNodes>
        0 -1 103428 4.4842727482318878e-02</internalNodes>
      <leafValues>
        -1.5774939954280853e-01 6.4843291044235229e-01</leafValues></_>
    <_>
      <internalNodes>
        0 -1 140962 1.5882505977060646e-04</internalNodes>
      <leafValues>
        -3.9142292737960815e-01 2.6864710450172424e-01</leafValues></_>
    <_>
      <internalNodes>
        0 -1 79383 1.8686922267079353e-03</internalNodes>
      <leafValues>
        1.2620204687118530e-01 -8.6578834056854248e-01</leafValues></_>
    <_>
      <internalNodes>
        0 -1 117503 -4.9711018800735474e-03</internalNodes>
      <leafValues>
        8.2208859920501709e-01 -1.5842211246490479e-01</leafValues></_>
    <_>
      <internalNodes>
        0 -1 6318 -1.8859358504414558e-02</internalNodes>
      <leafValues>
        6.1132532358169556e-01 -1.6945666074752808e-01</leafValues></_>
    <_>
      <internalNodes>
        0 -1 113849 7.6957265846431255e-03</internalNodes>
      <leafValues>
        1.8149252235889435e-01 -6.6609621047973633e-01</leafValues></_>
    <_>
      <internalNodes>
        0 -1 111965 -1.7463827971369028e-03</internalNodes>
      <leafValues>
        3.3639159798622131e-01 -3.3280745148658752e-01</leafValues></_>
    <_>
      <internalNodes>
        0 -1 62456 -1.8790515605360270e-03</internalNodes>
      <leafValues>
        3.8023826479911804e-01 -2.8636884689331055e-01</leafValues></_>
    <_>
      <internalNodes>
        0 -1 126419 1.7813315935200080e-05</internalNodes>
      <leafValues>
        -6.0593080520629883e-01 2.0186848938465118e-01</leafValues></_>
    <_>
      <internalNodes>
        0 -1 60094 1.8064548494294286e-03</internalNodes>
      <leafValues>
        -2.2435714304447174e-01 5.3033232688903809e-01</leafValues></_>
    <_>
      <internalNodes>
        0 -1 58987 -2.7253088774159551e-04</internalNodes>
      <leafValues>
        3.6236518621444702e-01 -4.0703538060188293e-01</leafValues></_>
    <_>
      <internalNodes>
        0 -1 153896 -2.0940238609910011e-03</internalNodes>
      <leafValues>
        5.6408220529556274e-01 -1.8526294827461243e-01</leafValues></_>
    <_>
      <internalNodes>
        0 -1 153110 -6.0114241205155849e-03</internalNodes>
      <leafValues>
        5.1326453685760498e-01 -1.9514568150043488e-01</leafValues></_></weakClassifiers></stage6>
</opencv_storage>
