<?xml version="1.0"?>
<opencv_storage>
<stage4>
  <maxWeakCount>9</maxWeakCount>
  <stageThreshold>-9.7888398170471191e-01</stageThreshold>
  <weakClassifiers>
    <_>
      <internalNodes>
        0 -1 138861 -5.7743513025343418e-04</internalNodes>
      <leafValues>
        5.7264959812164307e-01 -2.0772947371006012e-01</leafValues></_>
    <_>
      <internalNodes>
        0 -1 183145 -1.0711060836911201e-02</internalNodes>
      <leafValues>
        5.8540934324264526e-01 -2.0517398416996002e-01</leafValues></_>
    <_>
      <internalNodes>
        0 -1 111304 2.8575304895639420e-03</internalNodes>
      <leafValues>
        -2.3740607500076294e-01 5.1854109764099121e-01</leafValues></_>
    <_>
      <internalNodes>
        0 -1 125959 -4.2460924014449120e-03</internalNodes>
      <leafValues>
        6.2290102243423462e-01 -2.9366627335548401e-01</leafValues></_>
    <_>
      <internalNodes>
        0 -1 125069 -3.2633379101753235e-02</internalNodes>
      <leafValues>
        -9.1178959608078003e-01 1.8298090994358063e-01</leafValues></_>
    <_>
      <internalNodes>
        0 -1 80320 -9.9952323362231255e-03</internalNodes>
      <leafValues>
        7.3134452104568481e-01 -2.2757512331008911e-01</leafValues></_>
    <_>
      <internalNodes>
        0 -1 21278 4.6050604432821274e-03</internalNodes>
      <leafValues>
        -2.4176445603370667e-01 5.4761809110641479e-01</leafValues></_>
    <_>
      <internalNodes>
        0 -1 126887 -5.0731138326227665e-03</internalNodes>
      <leafValues>
        5.2505433559417725e-01 -2.6758456230163574e-01</leafValues></_>
    <_>
      <internalNodes>
        0 -1 140324 -1.2063909089192748e-03</internalNodes>
      <leafValues>
        3.9388036727905273e-01 -3.9753228425979614e-01</leafValues></_></weakClassifiers></stage4>
</opencv_storage>
